svm_type c_svc
kernel_type linear
nr_class 2
total_sv 94
rho 0.415395
label 1 2
nr_sv 47 47
SV
200 1:36.52923 2:16.785894 
200 1:40.794619 2:18.604372 
200 1:38.169764 2:17.483233 
200 1:36.638599 2:16.868998 
200 1:36.310492 2:16.738918 
200 1:37.841657 2:17.32596 
200 1:37.841657 2:17.199804 
200 1:37.622919 2:17.077851 
200 1:36.310492 2:16.738918 
200 1:36.52923 2:16.860096 
200 1:36.857336 2:17.013254 
200 1:52.16899 2:26.374502 
200 1:37.841657 2:17.562284 
200 1:36.310492 2:16.738918 
200 1:52.825203 2:26.738143 
200 1:36.310492 2:16.738918 
190.8222713299893 1:36.966705 2:16.86723 
200 1:36.966705 2:17.029423 
200 1:37.404181 2:17.17885 
200 1:36.747967 2:17.047127 
42.89244004634864 1:50.090979 2:24.380821 
200 1:40.029036 2:18.464681 
200 1:40.68525 2:20.007594 
200 1:37.841657 2:17.705446 
200 1:43.638211 2:21.449593 
200 1:37.622919 2:17.648677 
200 1:36.638599 2:16.863409 
200 1:40.68525 2:19.107459 
200 1:36.310492 2:16.738918 
200 1:36.966705 2:16.824626 
200 1:36.310492 2:16.738918 
200 1:37.294812 2:17.190977 
200 1:36.52923 2:16.886838 
200 1:42.76326 2:20.78275 
200 1:37.076074 2:17.017882 
200 1:36.52923 2:16.888074 
200 1:50.200348 2:24.095099 
200 1:41.66957 2:20.85333 
200 1:36.310492 2:16.738918 
200 1:36.419861 2:16.7806 
200 1:39.919667 2:18.449707 
200 1:36.747967 2:16.90859 
200 1:36.310492 2:16.738918 
200 1:36.747967 2:16.99136 
200 1:36.966705 2:17.221847 
200 1:73.933411 2:38.918637 
200 1:37.51355 2:17.185234 
-200 1:50.965931 2:27.287283 
-200 1:36.310492 2:16.738918 
-200 1:35.982385 2:16.696994 
-200 1:0 2:0 
-200 1:35.763647 2:16.665506 
-200 1:38.716609 2:17.038429 
-200 1:35.654278 2:16.428127 
-200 1:36.857336 2:16.945623 
-200 1:35.654278 2:16.652747 
-200 1:35.107433 2:16.129138 
-200 1:28.545296 2:11.716554 
-200 1:36.310492 2:16.738918 
-200 1:36.966705 2:17.153887 
-200 1:36.52923 2:16.88631 
-200 1:34.341851 2:15.956176 
-200 1:36.310492 2:16.738918 
-200 1:36.310492 2:16.738918 
-200 1:35.873016 2:16.649535 
-200 1:36.310492 2:16.738918 
-200 1:34.669957 2:15.871746 
-200 1:37.841657 2:17.43385 
-200 1:35.763647 2:16.634808 
-200 1:35.763647 2:16.592654 
-200 1:36.091754 2:16.674289 
-200 1:36.966705 2:17.137093 
-200 1:26.02981 2:10.35697 
-200 1:35.544909 2:16.55461 
-200 1:36.091754 2:16.646704 
-200 1:35.216802 2:16.304312 
-200 1:36.747967 2:16.79302 
-200 1:35.107433 2:16.170508 
-200 1:36.091754 2:16.62389 
-200 1:44.294425 2:21.510396 
-200 1:36.747967 2:16.939526 
-200 1:36.966705 2:17.176961 
-200 1:35.873016 2:16.532229 
-200 1:36.091754 2:16.66555 
-200 1:34.998064 2:16.571343 
-200 1:36.310492 2:16.738918 
-200 1:36.419861 2:16.782249 
-33.71471137630284 1:1130 2:600 
-200 1:35.654278 2:16.441554 
-200 1:36.310492 2:16.738918 
-200 1:36.419861 2:16.781051 
-200 1:37.294812 2:16.999023 
-200 1:36.638599 2:16.852168 
-200 1:36.747967 2:17.058476 
