svm_type c_svc
kernel_type linear
nr_class 2
total_sv 93
rho -0.96067
label 1 2
nr_sv 47 46
SV
100 1:36.52923 2:16.785894 
100 1:40.794619 2:18.604372 
100 1:38.169764 2:17.483233 
100 1:36.638599 2:16.868998 
100 1:36.310492 2:16.738918 
100 1:37.841657 2:17.32596 
100 1:37.841657 2:17.199804 
100 1:37.622919 2:17.077851 
100 1:36.310492 2:16.738918 
100 1:36.52923 2:16.860096 
100 1:36.857336 2:17.013254 
100 1:52.16899 2:26.374502 
100 1:37.841657 2:17.562284 
100 1:36.310492 2:16.738918 
100 1:52.825203 2:26.738143 
100 1:36.310492 2:16.738918 
100 1:38.060395 2:17.226122 
100 1:36.966705 2:16.86723 
100 1:36.966705 2:17.029423 
100 1:37.404181 2:17.17885 
100 1:36.747967 2:17.047127 
100 1:40.029036 2:18.464681 
100 1:40.68525 2:20.007594 
100 1:37.841657 2:17.705446 
100 1:43.638211 2:21.449593 
100 1:37.622919 2:17.648677 
100 1:36.638599 2:16.863409 
100 1:40.68525 2:19.107459 
100 1:36.310492 2:16.738918 
100 1:36.966705 2:16.824626 
100 1:36.310492 2:16.738918 
100 1:37.294812 2:17.190977 
100 1:36.52923 2:16.886838 
80.77040826624713 1:42.76326 2:20.78275 
100 1:37.076074 2:17.017882 
100 1:36.52923 2:16.888074 
100 1:41.66957 2:20.85333 
100 1:36.310492 2:16.738918 
100 1:36.419861 2:16.7806 
100 1:36.747967 2:16.90859 
100 1:36.310492 2:16.738918 
100 1:36.747967 2:16.99136 
100 1:36.966705 2:17.221847 
28.68936702343425 1:73.933411 2:38.918637 
81.28023622113334 1:40.68525 2:18.558362 
19.42348882022092 1:68.683701 2:32.319505 
100 1:37.51355 2:17.185234 
-100 1:50.965931 2:27.287283 
-100 1:36.310492 2:16.738918 
-100 1:35.982385 2:16.696994 
-100 1:35.763647 2:16.665506 
-100 1:38.716609 2:17.038429 
-100 1:35.654278 2:16.428127 
-100 1:36.857336 2:16.945623 
-100 1:35.654278 2:16.652747 
-100 1:35.107433 2:16.129138 
-100 1:28.545296 2:11.716554 
-100 1:36.310492 2:16.738918 
-100 1:36.966705 2:17.153887 
-100 1:36.52923 2:16.88631 
-100 1:34.341851 2:15.956176 
-100 1:36.310492 2:16.738918 
-100 1:36.310492 2:16.738918 
-100 1:35.873016 2:16.649535 
-100 1:36.310492 2:16.738918 
-100 1:34.669957 2:15.871746 
-100 1:37.841657 2:17.43385 
-100 1:35.763647 2:16.634808 
-100 1:35.763647 2:16.592654 
-100 1:36.091754 2:16.674289 
-100 1:36.966705 2:17.137093 
-100 1:26.02981 2:10.35697 
-100 1:35.544909 2:16.55461 
-100 1:36.091754 2:16.646704 
-100 1:35.216802 2:16.304312 
-100 1:36.747967 2:16.79302 
-100 1:35.107433 2:16.170508 
-100 1:36.091754 2:16.62389 
-100 1:44.294425 2:21.510396 
-100 1:36.747967 2:16.939526 
-100 1:36.966705 2:17.176961 
-100 1:35.873016 2:16.532229 
-100 1:36.091754 2:16.66555 
-100 1:34.998064 2:16.571343 
-100 1:36.310492 2:16.738918 
-100 1:36.419861 2:16.782249 
-10.16350033104314 1:1130 2:600 
-100 1:35.654278 2:16.441554 
-100 1:36.310492 2:16.738918 
-100 1:36.419861 2:16.781051 
-100 1:37.294812 2:16.999023 
-100 1:36.638599 2:16.852168 
-100 1:36.747967 2:17.058476 
